// weights and biases for NN (constant)...add more digits here to improve prediction accuracy?
const float b1[12] = {  0.72237110137939f, -1.35207033157348f, -1.60867822170257f, -1.32523286342620f,  
                        1.55884301662445f,  1.21165966987609f, -2.07767844200134f, -0.75332444906235f, 
                       -2.00126075744628f,  0.0f,  0.0f,  0.0f };

const float b2[25] = {  0.77532571554184f, -0.13743640482426f, -0.20437707006931f, -0.27955242991447f, -0.58627855777740f, 
                        0.47998437285423f,  0.29695436358452f, -0.71185523271561f,  0.14811679720879f,  0.46090313792229f,
                        0.49870213866234f,  0.14840219914913f, -0.58674567937851f, -0.49846267700195f, -0.48004564642906f,
                        0.88066756725311f, -0.24479234218597f, -0.62889045476913f, -0.80427616834641f, -0.35888510942459f,
                       -0.13727371394634f,  0.41189068555832f,  0.45098978281021f, -0.53604573011398f, -1.14459145069122f};

const float b3[5] =  {  0.80465430021286f,  0.02701778709888f,  2.69180798530578f, -0.61490160226822f,  0.62494301795959f};

const float w1[8][12] = { {  1.02089738845825f,  1.03777873516082f, -0.22560445964336f, -1.91076636314392f, -0.83923220634460f,  0.61074542999268f,
                             1.48427355289459f,  0.52022838592529f,  1.13706028461456f,  0.45752358436584f, -0.45030045509338f, -0.51375293731689f},
                          {  0.89914816617966f,  2.19197893142700f,  3.97771024703979f,  2.46894621849060f, -3.66731262207031f,  0.24743880331516f,  
                             3.70236492156982f, -1.16915762424468f, -0.85680770874023f, -0.17093712091446f, -0.45623537898064f, -0.28249585628510f},
                          {  1.40204989910125f,  1.40998864173889f, -0.06976491212845f,  1.77485048770904f, -0.79674190282822f, -0.52366304397583f, 
                            -0.12702812254429f,  2.07402825355529f,  0.12835952639580f, -0.49250048398972f, -0.32796332240105f,  0.09581488370895f},
                          { -3.17017245292663f,  3.59440851211547f,  3.16840004920959f, -0.66745573282242f, -0.55337315797806f,  1.38316285610198f,  
                             1.23715758323669f, -2.46466183662414f,  1.94074976444244f, -0.33483129739761f,  0.44783025979996f, -0.04796403646469f},
                          {  1.17520403861999f, -0.40107992291451f,  0.40543201565742f,  2.14037370681762f,  1.11789798736572f,  0.67298460006714f,  
                             0.63465154170990f, -0.84308016300201f, -0.35438039898872f, -0.36867678165436f,  0.10306990146637f, -0.34409683942795f},
                          { -4.71027898788452f,  0.26182615756989f, -0.69608646631241f, -2.22955918312072f,  3.08428812026977f, -1.39091551303863f,  
                             0.74382466077805f,  0.70718777179718f,  4.72706174850463f, -0.37281090021133f, -0.41923516988754f, -0.33827459812164f},
                          {  0.92527484893799f,  0.15053498744965f,  1.21858191490173f,  0.27175164222717f, -4.31137847900390f,  0.71125763654709f, 
                            -3.82984232902526f,  0.19633032381535f,  2.40375137329101f, -0.42790305614471f, -0.36492159962654f,  0.07778608798981f},
                          {  0.33539983630180f, -1.63042986392974f, -0.21362499892712f,  4.14877462387084f, -4.57398319244384f, -6.71505689620971f,  
                             1.93297994136810f,  5.38462305068969f,  1.66466474533081f, -0.12086161971092f, -0.27226093411446f,  0.50509989261627f} };

const float w2[12][25] = {{ 12.17141056060790f,   2.45858883857727f, -12.33188247680660f,   1.74736177921295f,  -3.94273471832275f,   7.16763067245483f,   0.69569838047028f,   1.86031854152679f,   4.75679445266723f,   4.06493139266967f,  
                            14.70222282409660f,  -2.56727361679077f,   2.20385742187500f,   4.65958213806152f,   7.04032611846923f,   2.21750259399414f,  -3.11014485359191f,   2.41066646575927f,   0.75560903549194f,   8.05085754394531f,
                            22.99432563781730f,   0.35663580894470f,   1.30399739742279f,   2.58442306518554f,  -1.36935925483703f},
                            
                          { -2.35948348045349f,  -0.47265923023224f,   0.35062816739082f,   1.74256455898284f,   1.52745878696441f,  -2.65126204490661f,   0.43513941764832f,   3.66637587547302f,   0.57572102546692f,  -3.94928550720214f,
                            -0.69234830141068f,  -2.52491307258605f,   0.18776898086071f,   2.34232544898986f,   0.73558300733566f,  -1.84806466102600f,   0.27787047624588f,  -2.07305455207824f,   0.29513663053513f,  -1.43247556686401f,  
                            -2.13902974128723f,  -0.96670275926590f,  -0.91430389881134f,  -0.45118686556816f,   1.30653822422027f},
                            
                          {  0.24330790340900f,  -1.62335944175720f, -34.09963607788080f,  -4.69241952896118f,  -4.05422544479370f,  -0.73527359962463f,   0.12472083419561f,  -3.49248170852661f, -46.41057205200190f, -16.19166564941400f,
                           -28.42846488952630f,   3.03362703323364f,  -0.60635703802109f,  -5.10087156295776f,  -1.81757748126983f,  -4.73199748992919f,   3.81985187530517f,  -0.58195507526398f,  -0.94481176137924f, -20.13552093505850f, 
                           -25.85074234008780f,   3.61461138725280f,  -2.02202558517456f,   2.10128331184387f,   0.53115797042847f},
                           
                          {  0.58724063634872f,   1.44097864627838f,  -7.45337724685668f,   1.02769351005554f,  -0.59583520889282f,  -0.87805521488190f,  -5.27280282974243f,   1.33615028858184f,  -2.65966320037841f,  -4.02994394302368f,
                             3.27635383605957f,  -1.60470426082611f,   1.71744489669799f,  -1.28998982906341f,   0.23316365480423f,  -0.66752105951309f,  -2.25859880447387f,   0.12228903174400f,   4.04015493392944f,  -2.44825792312622f,   
                             0.70338898897171f,   1.12838304042816f,  -1.16305077075958f,   1.92469549179077f,  -1.51740348339080f},
                             
                          {  0.93773657083511f,   1.49543011188507f,  13.86290264129630f,   1.22810804843902f,   2.89485740661621f,  -1.85923528671264f,   4.87365674972534f,   0.69306445121765f,   7.89243125915527f,   8.59871482849121f,
                            -0.30272471904755f,  -0.68617701530457f,  -0.58005625009537f,  -0.04612307623029f,  -7.91572999954223f,   1.78713393211364f,   0.37079265713692f,   2.20323562622070f,  -0.13389641046524f,   2.86153960227966f,   
                             3.72811150550842f,  -6.08219051361083f,  -0.41759175062180f,  -0.86088806390762f,   1.14455091953277f},
                            
                          {  7.34452009201049f,  -2.48422765731811f,  20.17593765258780f,   0.97034496068954f,  -1.16780626773834f,  -1.49038124084472f,   4.89758443832397f,   4.99561071395874f,  13.75183105468750f,  -4.89405775070190f,
                            -9.00063610076904f, -11.08817005157470f,  -5.94371891021728f,  -6.49121999740600f, -11.09095573425290f,  10.57383918762200f,  10.92459678649900f,   1.77889800071716f,   1.56666898727416f,  19.71018600463860f,  
                            -5.63914680480957f,   0.34212976694107f,  -0.32223248481750f,   3.74320268630981f,   4.43621492385864f},
                            
                          { -2.35177803039550f,   0.46207121014595f, -13.90493202209470f,   2.41746640205383f,   2.02946209907531f,   3.58818817138671f,  -3.97405195236206f,  -5.28234434127807f, -12.38327789306640f, -13.70867633819580f,
                           -11.96435451507560f,  -0.80889034271240f,   1.26719510555267f,  -0.84720653295517f,  -6.60078716278076f, -13.26987361907950f,  -2.48262977600097f,   1.29012942314147f,  -0.41040423512459f,  -6.13166522979736f,  
                            -7.26579380035400f,  -1.15396046638488f,   0.03226025775075f,   0.93130904436111f,   0.59731638431549f},
                           
                          { -2.14131402969360f,   1.73624837398529f,  -2.27648377418518f,  -0.64009016752243f,   1.15744197368621f,   0.32216429710388f,  -1.22117280960083f,  -3.88579130172729f,  -1.60514211654663f,   3.15471744537353f,
                             1.14578878879547f,   4.23646688461303f,   1.27233195304870f,   1.25634884834289f,   4.55766534805297f,   0.58701008558273f,  -1.28171241283416f,  -1.27572464942932f,  -1.86171746253967f,  -1.33471608161926f,   
                             6.48184633255004f,  -2.33784294128417f,  -0.88646185398102f,  -3.04593396186828f,   3.03595685958862f},
                             
                          { -6.14908504486083f,  -2.77012157440185f, -28.36646842956540f,   1.18606448173522f,   1.82477033138275f,   0.41937074065208f,  -2.29538154602050f,   0.30409395694733f, -16.30709075927730f, -37.51700973510740f,
                           -22.57109260559080f,   0.36214035749435f,  -1.16970205307006f,   0.88396865129471f, -13.37145042419430f, -12.04489135742180f,   1.50870013236999f,   2.67185688018798f,  -0.00768197374418f,   4.49551630020141f,  
                            -2.16240835189819f,  -4.99190855026245f,  -1.60628259181976f,  -0.18834193050861f,  -0.35617795586586f},
                           
                          { -0.16246041655540f,   0.00873908400536f,   0.22776943445206f,  -0.01428094506264f,   0.05550000071526f,  -0.35385879874229f,  -0.05692958831787f,   0.02969396114349f,   0.23108541965485f,   0.16307133436203f,
                            -0.28950250148773f,  -0.05295094847679f,   0.29296928644180f,  -0.31761583685875f,   0.23994880914688f,  -0.03719767928123f,   0.11814284324646f,  -0.05858787894249f,   0.38209718465805f,   0.12025582790375f,   
                             0.34945368766785f,  -0.33595952391624f,   0.01766711473465f,  -0.09815806150436f,  -0.08956921100616f},
                            
                          { -0.18356688320637f,  -0.04016420245171f,  -0.30529800057411f,   0.03607475757599f,  -0.08956864476204f,  -0.17240701615810f,  -0.25832045078278f,  -0.33368641138077f,  -0.38876953721046f,   0.09346076846123f,
                            -0.11942237615585f,  -0.29329678416252f,   0.27059596776962f,  -0.23129874467850f,  -0.11274987459183f,   0.12619197368622f,  -0.21645709872246f,  -0.36990460753441f,  -0.37587553262711f,   0.27598214149475f,  
                            -0.26355731487274f,   0.00195226073265f,   0.03910261392593f,  -0.10957244038582f,  -0.04878526926041f},
                            
                          {  0.39810943603516f,   0.28973299264908f,   0.10404229164124f,   0.17684447765350f,   0.20108401775360f,  -0.32650756835938f,   0.32027751207352f,   0.04698500037193f,   0.14358019828796f,  -0.13933178782463f,
                            -0.02240076661110f,  -0.16765031218529f,  -0.29099485278130f,  -0.05478906631470f,  -0.07217237353325f,   0.17870199680328f,   0.01571851968765f,   0.02998879551888f,   0.12674212455750f,  -0.30667197704315f,   
                             0.00839555263519f,  -0.21376095712185f,  -0.29951080679893f,   0.11288988590240f,  -0.22436445951462f} };
                            

const float w3[25][5] = { {  0.18339312076569f, -0.11806522309780f, -0.20995141565800f, -2.64518857002258f,  0.08798718452454f},
                          {  0.05143068358302f,  0.01255124062300f,  0.02735753916204f, -0.55027174949646f,  1.40490615367889f},
                          {  0.30906409025192f,  0.13518047332764f,  0.20393823087215f, -5.72412014007568f,  8.42959785461425f},
                          { -1.57351446151733f, -0.67331022024155f, -0.00905189663172f,  0.34348252415657f,  0.17395631968975f},
                          {  0.53414821624756f, -0.32467216253281f, -0.52190762758255f,  0.15184758603573f,  0.06905578076839f},
                          {  0.47930929064751f,  0.07307790964842f, -0.20295713841915f, -0.10264351218939f, -0.12883439660072f},
                          { -0.19713431596756f,  0.26824340224266f, -0.30859786272049f,  1.84623968601226f, -0.89581078290939f},
                          {  0.10545041412115f, -0.54958015680313f, -0.13703450560570f,  0.14799553155899f, -2.02590942382812f},
                          { -0.24728244543076f, -0.13223305344582f, -0.41449314355850f,  7.45436716079711f, -2.07144784927368f},
                          { -0.41242924332619f, -0.02912021614611f, -0.10502887517214f, -2.35673928260803f, -8.70420074462890f},
                          {  0.35128811001778f,  0.09210265427828f, -0.33938807249069f, -2.01487755775451f,  4.39213800430297f},
                          { -0.16049541532993f, -0.50493061542511f, -0.24600477516651f,  0.14206576347351f,  0.38214159011841f},
                          { -0.12950037419796f,  0.18108110129833f, -0.64594215154648f,  0.28676152229309f, -0.14167925715446f},
                          { -0.04120837152004f,  0.41859081387520f, -0.29651355743408f,  1.04238784313201f,  0.41165229678154f},
                          { -0.01162845361978f,  0.24291360378265f, -0.48805597424507f,  1.64465475082397f,  2.38978719711303f},
                          { -0.16250318288803f, -0.09072093665600f,  1.51385498046875f, -0.85752779245377f, -3.72252345085144f},
                          {  0.07011967152357f,  0.00818684697151f, -0.60635286569595f,  0.32725092768669f, -0.37094515562057f},
                          {  0.41311627626419f,  0.40023502707481f,  0.25120717287064f, -0.09134149551392f, -0.05587985366583f},
                          { -0.03526194021106f, -0.56119805574417f, -0.10840965062380f, -0.13428592681885f, -0.23293815553188f},
                          {  0.29023194313049f,  0.14564009010792f, -0.27558660507202f,  2.50421524047851f,  0.24166674911976f},
                          { -0.06081610545516f, -0.09641543775797f,  0.08411793410778f, -0.11078209429979f,  1.43882083892822f},
                          { -0.26896312832832f, -0.00317543395795f, -0.34155496954918f, -0.78307014703751f, -0.53478997945786f},
                          { -0.02212720736861f, -0.31715789437294f,  1.90671706199645f,  0.23361140489578f,  0.46148708462715f},
                          {  0.10754155367613f, -0.46410927176476f, -0.20783942937851f, -0.16069327294827f,  0.37090215086937f},
                          { -0.14667631685734f,  1.20552480220794f,  0.37580880522728f, -0.39109167456627f, -0.17102044820786f} };

const float minims[] = { -79.14952894807573f, -59.34503867427718f, -190.91288f,  -0.7863755477785648f, -0.7863755477785648f, -831.0f, -997.0f, -974.0f, -986.0f, -998.0f, -964.0f, -136.0f, -881.0f};
const float maxims[] = { 145.75214841512442f, 147.80758667427716f,  194.5331016f, 1.5781267096532723f,  1.5765908199115173f, 4079.0f, 3156.0f, 3734.0f, 4001.0f, 3463.0f, 3463.0f, 2621.0f, 3370.0f};
const float maxS = 4079.0;